0
0
0
0
0
0
0
0
0
0
0
0
0
0
0
0
0.00165713
-0.00315839
-0.00670107
0.0651417
0.0651417
-0.00670107
0.00191764
-0.599937
0
0
0
0
0
0
0
0
0.000354738
-0.000656941
-0.00187148
0.0198829
0.0198829
-0.00187148
0.000530868
-0.114017
0.000183525
0.000754295
0.000135618
-0.000488465
-0.000488465
0.000135618
0.000227481
-0.00256942
0
0
0
0
0
0
0
0
0.0021129
-0.00352692
-0.00672036
0.0633021
0.0633021
-0.00672036
0.00238786
-0.697169
0.00165713
-0.00315839
-0.00670107
0.0651417
0.0651417
-0.00670107
0.00191764
-0.599937
0.00057037
-0.000376933
-9.97986e-05
0.00125894
0.00125894
-9.97986e-05
0.000759061
-0.00628871
0
0
0
0
0
0
0
0
0.00165713
-0.00315839
-0.00670107
0.0651417
0.0651417
-0.00670107
0.00191764
-0.599937
0.0108593
0.0117281
-0.0102511
0.00820626
0.0049392
-0.0070156
0.00927978
0.0121994
-0.0129721
-0.000827856
-0.000535459
-0.00304364
-0.000827856
-0.000535459
-0.00304364
0.00927978
0.0121994
-0.0129721
0.0110594
0.0142116
-0.012386
-2.97039e-25
-3.53279e-25
7.05259e-25
0.0203419
0.0216037
-0.0216041
